SVM-light Version V6.20
0 # kernel type
3 # kernel parameter -d 
1 # kernel parameter -g 
1 # kernel parameter -s 
1 # kernel parameter -r 
empty# kernel parameter -u 
19 # highest feature index 
2 # number of training documents 
2 # number of support vectors plus 1 
0 # threshold b, each following line is a SV (starting with alpha*y)
1 1:-0.018074984 2:-0.013728026 3:-0.0146681 4:-0.014615279 5:-0.0098812375 6:-0.0096238647 7:-0.016298035 8:-0.013138221 9:-0.013042014 10:-0.010910699 11:-0.0063839727 12:-0.0062759663 13:-0.009057587 14:-0.0069614504 15:-0.0073173922 16:0.0011370516 17:-8.6864784e-06 18:-4.5582228e-06 #
