SVM-light Version V6.20
0 # kernel type
3 # kernel parameter -d 
1 # kernel parameter -g 
1 # kernel parameter -s 
1 # kernel parameter -r 
empty# kernel parameter -u 
16 # highest feature index 
2 # number of training documents 
2 # number of support vectors plus 1 
0 # threshold b, each following line is a SV (starting with alpha*y)
1 1:-0.0021988116 2:-0.0093206353 3:-0.008748021 4:0.00043763992 5:-0.0059477729 6:-0.0057560466 7:0.0018146215 8:-0.0071086739 9:-0.0073926966 10:0.0025413663 11:-0.0057297065 12:-0.0058456738 13:0.0045435238 14:-0.004287038 15:-0.0046513886 #
