SVM-light Version V6.20
0 # kernel type
3 # kernel parameter -d 
1 # kernel parameter -g 
1 # kernel parameter -s 
1 # kernel parameter -r 
empty# kernel parameter -u 
16 # highest feature index 
2 # number of training documents 
2 # number of support vectors plus 1 
0 # threshold b, each following line is a SV (starting with alpha*y)
1 1:-0.00091285468 2:-0.0080793165 3:-0.007598042 4:-0.00084714883 5:-0.0066930745 6:-0.0065607107 7:0.0029759516 8:-0.006742693 9:-0.0067358245 10:0.0023970576 11:-0.0065865261 12:-0.0066998368 13:0.004103573 14:-0.0052147293 15:-0.0057219248 #
