SVM-light Version V6.20
0 # kernel type
3 # kernel parameter -d 
1 # kernel parameter -g 
1 # kernel parameter -s 
1 # kernel parameter -r 
empty# kernel parameter -u 
16 # highest feature index 
2 # number of training documents 
2 # number of support vectors plus 1 
0 # threshold b, each following line is a SV (starting with alpha*y)
1 1:-0.0029504115 2:-0.0094472552 3:-0.008907292 4:-7.3444593e-05 5:-0.0059115123 6:-0.0056784851 7:0.001225321 8:-0.0079999724 9:-0.0081527457 10:0.002103749 11:-0.0065036211 12:-0.0066183032 13:0.0051741898 14:-0.0052229594 15:-0.0057284953 #
