SVM-light Version V6.20
0 # kernel type
3 # kernel parameter -d 
1 # kernel parameter -g 
1 # kernel parameter -s 
1 # kernel parameter -r 
empty# kernel parameter -u 
16 # highest feature index 
2 # number of training documents 
2 # number of support vectors plus 1 
0 # threshold b, each following line is a SV (starting with alpha*y)
1 1:-0.0033229832 2:-0.0098489961 3:-0.0093124993 4:-0.0018197225 5:-0.0070429081 6:-0.0068379152 7:0.0026301511 8:-0.0069425795 9:-0.0071865194 10:0.0022484006 11:-0.0059194053 12:-0.005992067 13:0.0044302838 14:-0.0041811033 15:-0.0046059918 #
