SVM-light Version V6.20
0 # kernel type
3 # kernel parameter -d 
1 # kernel parameter -g 
1 # kernel parameter -s 
1 # kernel parameter -r 
empty# kernel parameter -u 
16 # highest feature index 
2 # number of training documents 
2 # number of support vectors plus 1 
0 # threshold b, each following line is a SV (starting with alpha*y)
1 1:-0.0020876045 2:-0.010113649 3:-0.0096773244 4:-0.00034147076 5:-0.0070526041 6:-0.0068450952 7:0.0022103942 8:-0.0078921653 9:-0.007991313 10:0.0028379934 11:-0.0055194427 12:-0.005548432 13:0.0054945205 14:-0.0039158114 15:-0.0044315066 #
