SVM-light Version V6.20
0 # kernel type
3 # kernel parameter -d 
1 # kernel parameter -g 
1 # kernel parameter -s 
1 # kernel parameter -r 
empty# kernel parameter -u 
16 # highest feature index 
2 # number of training documents 
2 # number of support vectors plus 1 
0 # threshold b, each following line is a SV (starting with alpha*y)
1 1:-0.0023034399 2:-0.010560701 3:-0.0099913059 4:0.00060109096 5:-0.0050737397 6:-0.0049135075 7:0.00157642 8:-0.0073881 9:-0.0076655135 10:0.00230072 11:-0.0059852637 12:-0.0059240242 13:0.0033421093 14:-0.0051757409 15:-0.0056891949 #
