SVM-light Version V6.20
0 # kernel type
3 # kernel parameter -d 
1 # kernel parameter -g 
1 # kernel parameter -s 
1 # kernel parameter -r 
empty# kernel parameter -u 
16 # highest feature index 
2 # number of training documents 
2 # number of support vectors plus 1 
0 # threshold b, each following line is a SV (starting with alpha*y)
1 1:-0.0023365377 2:-0.01015358 3:-0.0096212365 4:-0.00040623799 5:-0.0068733627 6:-0.0066468464 7:0.0025280977 8:-0.0069770436 9:-0.0071068727 10:0.0032616616 11:-0.0054242443 12:-0.0055953623 13:0.0034736968 14:-0.0051926537 15:-0.0056505664 #
