SVM-light Version V6.20
0 # kernel type
3 # kernel parameter -d 
1 # kernel parameter -g 
1 # kernel parameter -s 
1 # kernel parameter -r 
empty# kernel parameter -u 
16 # highest feature index 
2 # number of training documents 
2 # number of support vectors plus 1 
0 # threshold b, each following line is a SV (starting with alpha*y)
1 1:-0.0019432814 2:-0.0096030664 3:-0.009222446 4:-1.3248333e-05 5:-0.0059829722 6:-0.0057176566 7:0.0023782328 8:-0.0073007625 9:-0.0072729276 10:0.0033476616 11:-0.0054363781 12:-0.0056046136 13:0.0051741898 14:-0.0052229594 15:-0.0057284953 #
